Language model created by QuickLM on Sun Dec 20 16:33:09 EST 2015
Copyright (c) 1996-2010 Carnegie Mellon University and Alexander I. Rudnicky

The model is in standard ARPA format, designed by Doug Paul while he was at MITRE.

The code that was used to produce this language model is available in Open Source.
Please visit http://www.speech.cs.cmu.edu/tools/ for more information

The (fixed) discount mass is 0.5. The backoffs are computed using the ratio method.
This model based on a corpus of 9 sentences and 12 words

\data\
ngram 1=12
ngram 2=19
ngram 3=18

\1-grams:
-0.9031 </s> -0.3010
-0.9031 <s> -0.2430
-1.8573 BLUE -0.2430
-1.8573 CYAN -0.2430
-1.8573 DIM -0.2430
-1.8573 GREEN -0.2430
-0.9031 LIGHTS -0.2430
-1.8573 OFF -0.2430
-1.8573 PURPLE -0.2430
-1.8573 RED -0.2430
-1.8573 WHITE -0.2430
-1.8573 YELLOW -0.2430

\2-grams:
-0.3010 <s> LIGHTS 0.0000
-0.3010 BLUE </s> -0.3010
-0.3010 CYAN </s> -0.3010
-0.3010 DIM </s> -0.3010
-0.3010 GREEN </s> -0.3010
-1.2553 LIGHTS BLUE 0.0000
-1.2553 LIGHTS CYAN 0.0000
-1.2553 LIGHTS DIM 0.0000
-1.2553 LIGHTS GREEN 0.0000
-1.2553 LIGHTS OFF 0.0000
-1.2553 LIGHTS PURPLE 0.0000
-1.2553 LIGHTS RED 0.0000
-1.2553 LIGHTS WHITE 0.0000
-1.2553 LIGHTS YELLOW 0.0000
-0.3010 OFF </s> -0.3010
-0.3010 PURPLE </s> -0.3010
-0.3010 RED </s> -0.3010
-0.3010 WHITE </s> -0.3010
-0.3010 YELLOW </s> -0.3010

\3-grams:
-1.2553 <s> LIGHTS BLUE
-1.2553 <s> LIGHTS CYAN
-1.2553 <s> LIGHTS DIM
-1.2553 <s> LIGHTS GREEN
-1.2553 <s> LIGHTS OFF
-1.2553 <s> LIGHTS PURPLE
-1.2553 <s> LIGHTS RED
-1.2553 <s> LIGHTS WHITE
-1.2553 <s> LIGHTS YELLOW
-0.3010 LIGHTS BLUE </s>
-0.3010 LIGHTS CYAN </s>
-0.3010 LIGHTS DIM </s>
-0.3010 LIGHTS GREEN </s>
-0.3010 LIGHTS OFF </s>
-0.3010 LIGHTS PURPLE </s>
-0.3010 LIGHTS RED </s>
-0.3010 LIGHTS WHITE </s>
-0.3010 LIGHTS YELLOW </s>

\end\
